<?xml version="1.0"?>
<opencv_storage>
<haarcascade type_id="opencv-haar-classifier">
  <size>
    20 20</size>
  <stages>
    <_>
      <!-- stage 0 -->
      <trees>
        <_>
          <!-- tree 0 -->
          <_>
            <!-- root node -->
            <feature>
              <rects>
                <_>
                  0 0 3 9 -1.</_>
                <_>
                  1 3 1 3 9.</_></rects>
              <tilted>0</tilted></feature>
            <threshold>-1.4724740386009216e-001</threshold>
            <left_val>1.</left_val>
            <right_node>1</right_node></_>
          <_>
            <!-- node 1 -->
            <feature>
              <rects>
                <_>
                  0 0 2 1 -1.</_>
                <_>
                  1 0 1 1 2.</_></rects>
              <tilted>0</tilted></feature>
            <threshold>-9.6792615950107574e-003</threshold>
            <left_val>0.</left_val>
            <right_val>-1.</right_val></_></_></trees>
      <stage_threshold>1.</stage_threshold>
      <parent>-1</parent>
      <next>-1</next></_>
    <_>
      <!-- stage 1 -->
      <trees>
        <_>
          <!-- tree 0 -->
          <_>
            <!-- root node -->
            <feature>
              <rects>
                <_>
                  0 2 2 4 -1.</_>
                <_>
                  0 3 2 2 2.</_></rects>
              <tilted>0</tilted></feature>
            <threshold>1.0418729856610298e-002</threshold>
            <left_val>-1.</left_val>
            <right_node>1</right_node></_>
          <_>
            <!-- node 1 -->
            <feature>
              <rects>
                <_>
                  0 0 1 6 -1.</_>
                <_>
                  0 2 1 2 3.</_></rects>
              <tilted>0</tilted></feature>
            <threshold>5.7530431076884270e-003</threshold>
            <left_val>-1.</left_val>
            <right_val>1.</right_val></_></_></trees>
      <stage_threshold>1.</stage_threshold>
      <parent>0</parent>
      <next>-1</next></_></stages></haarcascade>
</opencv_storage>
