<?xml version="1.0"?>
<opencv_storage>
<haarcascade type_id="opencv-haar-classifier">
  <size>
    40 58</size>
  <stages>
    <_>
      <!-- stage 0 -->
      <trees>
        <_>
          <!-- tree 0 -->
          <_>
            <!-- root node -->
            <feature>
              <rects>
                <_>
                  11 10 18 39 -1.</_>
                <_>
                  11 23 18 13 3.</_></rects>
              <tilted>0</tilted></feature>
            <threshold>8.2578763365745544e-002</threshold>
            <left_val>-9.6190470457077026e-001</left_val>
            <right_node>1</right_node></_>
          <_>
            <!-- node 1 -->
            <feature>
              <rects>
                <_>
                  7 28 18 3 -1.</_>
                <_>
                  7 29 18 1 3.</_></rects>
              <tilted>0</tilted></feature>
            <threshold>9.2203707026783377e-005</threshold>
            <left_val>9.6799999475479126e-001</left_val>
            <right_val>-1.0000089406967163e+000</right_val></_></_>
        <_>
          <!-- tree 1 -->
          <_>
            <!-- root node -->
            <feature>
              <rects>
                <_>
                  10 24 23 22 -1.</_>
                <_>
                  10 35 23 11 2.</_></rects>
              <tilted>0</tilted></feature>
            <threshold>-2.8475420549511909e-002</threshold>
            <left_node>1</left_node>
            <right_val>-9.7966551780700684e-001</right_val></_>
          <_>
            <!-- node 1 -->
            <feature>
              <rects>
                <_>
                  15 30 16 2 -1.</_>
                <_>
                  23 30 8 1 2.</_>
                <_>
                  15 31 8 1 2.</_></rects>
              <tilted>0</tilted></feature>
            <threshold>-1.2428799891495146e-005</threshold>
            <left_val>-9.5802879333496094e-001</left_val>
            <right_val>3.3831229805946350e-001</right_val></_></_></trees>
      <stage_threshold>-6.2359237670898438e-001</stage_threshold>
      <parent>-1</parent>
      <next>-1</next></_>
    <_>
      <!-- stage 1 -->
      <trees>
        <_>
          <!-- tree 0 -->
          <_>
            <!-- root node -->
            <feature>
              <rects>
                <_>
                  3 11 32 24 -1.</_>
                <_>
                  3 23 32 12 2.</_></rects>
              <tilted>0</tilted></feature>
            <threshold>5.1207240670919418e-002</threshold>
            <left_val>-9.2000001668930054e-001</left_val>
            <right_node>1</right_node></_>
          <_>
            <!-- node 1 -->
            <feature>
              <rects>
                <_>
                  8 28 17 3 -1.</_>
                <_>
                  8 29 17 1 3.</_></rects>
              <tilted>0</tilted></feature>
            <threshold>-1.4265689969761297e-005</threshold>
            <left_val>-1.</left_val>
            <right_val>9.5161342620849609e-001</right_val></_></_>
        <_>
          <!-- tree 1 -->
          <_>
            <!-- root node -->
            <feature>
              <rects>
                <_>
                  22 23 1 10 -1.</_>
                <_>
                  22 23 1 5 2.</_></rects>
              <tilted>1</tilted></feature>
            <threshold>1.7518579625175335e-005</threshold>
            <left_node>1</left_node>
            <right_val>-9.2733031511306763e-001</right_val></_>
          <_>
            <!-- node 1 -->
            <feature>
              <rects>
                <_>
                  14 27 12 6 -1.</_>
                <_>
                  14 27 6 6 2.</_></rects>
              <tilted>0</tilted></feature>
            <threshold>-1.3871979717805516e-005</threshold>
            <left_val>-1.</left_val>
            <right_val>3.3321678638458252e-001</right_val></_></_>
        <_>
          <!-- tree 2 -->
          <_>
            <!-- root node -->
            <feature>
              <rects>
                <_>
                  15 22 10 1 -1.</_>
                <_>
                  15 22 5 1 2.</_></rects>
              <tilted>1</tilted></feature>
            <threshold>6.1804680626664776e-006</threshold>
            <left_node>1</left_node>
            <right_val>-9.9999499320983887e-001</right_val></_>
          <_>
            <!-- node 1 -->
            <feature>
              <rects>
                <_>
                  14 25 12 9 -1.</_>
                <_>
                  18 28 4 3 9.</_></rects>
              <tilted>0</tilted></feature>
            <threshold>1.1625180486589670e-003</threshold>
            <left_val>9.6449470520019531e-001</left_val>
            <right_val>-9.9998867511749268e-001</right_val></_></_></trees>
      <stage_threshold>-8.8283562660217285e-001</stage_threshold>
      <parent>0</parent>
      <next>-1</next></_>
    <_>
      <!-- stage 2 -->
      <trees>
        <_>
          <!-- tree 0 -->
          <_>
            <!-- root node -->
            <feature>
              <rects>
                <_>
                  20 24 8 3 -1.</_>
                <_>
                  20 24 4 3 2.</_></rects>
              <tilted>1</tilted></feature>
            <threshold>-3.5276189009891823e-005</threshold>
            <left_val>-9.6825391054153442e-001</left_val>
            <right_node>1</right_node></_>
          <_>
            <!-- node 1 -->
            <feature>
              <rects>
                <_>
                  19 23 10 1 -1.</_>
                <_>
                  19 23 5 1 2.</_></rects>
              <tilted>1</tilted></feature>
            <threshold>2.7037090148951393e-006</threshold>
            <left_val>8.7832778692245483e-001</left_val>
            <right_val>-1.0000079870223999e+000</right_val></_></_>
        <_>
          <!-- tree 1 -->
          <_>
            <!-- root node -->
            <feature>
              <rects>
                <_>
                  22 18 18 28 -1.</_>
                <_>
                  28 18 6 28 3.</_></rects>
              <tilted>0</tilted></feature>
            <threshold>2.7102829888463020e-002</threshold>
            <left_val>-4.5288181304931641e-001</left_val>
            <right_node>1</right_node></_>
          <_>
            <!-- node 1 -->
            <feature>
              <rects>
                <_>
                  8 26 27 1 -1.</_>
                <_>
                  17 26 9 1 3.</_></rects>
              <tilted>0</tilted></feature>
            <threshold>-1.7114369256887585e-005</threshold>
            <left_val>-1.</left_val>
            <right_val>2.0893900096416473e-001</right_val></_></_></trees>
      <stage_threshold>-7.5931501388549805e-001</stage_threshold>
      <parent>1</parent>
      <next>-1</next></_>
    <_>
      <!-- stage 3 -->
      <trees>
        <_>
          <!-- tree 0 -->
          <_>
            <!-- root node -->
            <feature>
              <rects>
                <_>
                  12 18 15 12 -1.</_>
                <_>
                  17 22 5 4 9.</_></rects>
              <tilted>0</tilted></feature>
            <threshold>9.7041530534625053e-004</threshold>
            <left_val>-8.7234008312225342e-001</left_val>
            <right_node>1</right_node></_>
          <_>
            <!-- node 1 -->
            <feature>
              <rects>
                <_>
                  11 25 18 2 -1.</_>
                <_>
                  17 25 6 2 3.</_></rects>
              <tilted>0</tilted></feature>
            <threshold>6.2336752307601273e-005</threshold>
            <left_val>8.4375029802322388e-001</left_val>
            <right_val>-9.2857927083969116e-001</right_val></_></_>
        <_>
          <!-- tree 1 -->
          <_>
            <!-- root node -->
            <feature>
              <rects>
                <_>
                  34 22 6 14 -1.</_>
                <_>
                  34 22 3 14 2.</_></rects>
              <tilted>0</tilted></feature>
            <threshold>4.0031231037573889e-005</threshold>
            <left_val>-6.4755982160568237e-001</left_val>
            <right_node>1</right_node></_>
          <_>
            <!-- node 1 -->
            <feature>
              <rects>
                <_>
                  11 14 18 18 -1.</_>
                <_>
                  11 23 18 9 2.</_></rects>
              <tilted>0</tilted></feature>
            <threshold>1.4325289987027645e-002</threshold>
            <left_val>-9.2366617918014526e-001</left_val>
            <right_val>2.4194550514221191e-001</right_val></_></_>
        <_>
          <!-- tree 2 -->
          <_>
            <!-- root node -->
            <feature>
              <rects>
                <_>
                  0 23 6 14 -1.</_>
                <_>
                  3 23 3 14 2.</_></rects>
              <tilted>0</tilted></feature>
            <threshold>1.5641510253772140e-003</threshold>
            <left_val>-7.0846980810165405e-001</left_val>
            <right_node>1</right_node></_>
          <_>
            <!-- node 1 -->
            <feature>
              <rects>
                <_>
                  8 24 6 9 -1.</_>
                <_>
                  8 27 6 3 3.</_></rects>
              <tilted>0</tilted></feature>
            <threshold>1.2421590508893132e-004</threshold>
            <left_val>9.6742242574691772e-001</left_val>
            <right_val>-8.0763822793960571e-001</right_val></_></_></trees>
      <stage_threshold>-1.3388639688491821e+000</stage_threshold>
      <parent>2</parent>
      <next>-1</next></_>
    <_>
      <!-- stage 4 -->
      <trees>
        <_>
          <!-- tree 0 -->
          <_>
            <!-- root node -->
            <feature>
              <rects>
                <_>
                  9 14 8 34 -1.</_>
                <_>
                  13 14 4 34 2.</_></rects>
              <tilted>0</tilted></feature>
            <threshold>-3.4806400071829557e-003</threshold>
            <left_node>1</left_node>
            <right_val>-7.5107580423355103e-001</right_val></_>
          <_>
            <!-- node 1 -->
            <feature>
              <rects>
                <_>
                  8 25 10 9 -1.</_>
                <_>
                  13 25 5 9 2.</_></rects>
              <tilted>0</tilted></feature>
            <threshold>-4.9396388931199908e-004</threshold>
            <left_val>-1.</left_val>
            <right_val>8.9699631929397583e-001</right_val></_></_>
        <_>
          <!-- tree 1 -->
          <_>
            <!-- root node -->
            <feature>
              <rects>
                <_>
                  22 24 18 15 -1.</_>
                <_>
                  28 24 6 15 3.</_></rects>
              <tilted>0</tilted></feature>
            <threshold>3.5929129808209836e-005</threshold>
            <left_val>-4.7756829857826233e-001</left_val>
            <right_node>1</right_node></_>
          <_>
            <!-- node 1 -->
            <feature>
              <rects>
                <_>
                  11 13 18 36 -1.</_>
                <_>
                  17 25 6 12 9.</_></rects>
              <tilted>0</tilted></feature>
            <threshold>7.8570306301116943e-002</threshold>
            <left_val>-7.5150167942047119e-001</left_val>
            <right_val>3.2048919796943665e-001</right_val></_></_>
        <_>
          <!-- tree 2 -->
          <_>
            <!-- root node -->
            <feature>
              <rects>
                <_>
                  0 19 18 27 -1.</_>
                <_>
                  6 19 6 27 3.</_></rects>
              <tilted>0</tilted></feature>
            <threshold>1.4130069874227047e-002</threshold>
            <left_node>1</left_node>
            <right_val>7.1466672420501709e-001</right_val></_>
          <_>
            <!-- node 1 -->
            <feature>
              <rects>
                <_>
                  11 36 15 12 -1.</_>
                <_>
                  16 40 5 4 9.</_></rects>
              <tilted>0</tilted></feature>
            <threshold>3.8106568157672882e-002</threshold>
            <left_val>-8.6824047565460205e-001</left_val>
            <right_val>9.3361657857894897e-001</right_val></_></_>
        <_>
          <!-- tree 3 -->
          <_>
            <!-- root node -->
            <feature>
              <rects>
                <_>
                  14 18 14 2 -1.</_>
                <_>
                  14 19 14 1 2.</_></rects>
              <tilted>0</tilted></feature>
            <threshold>1.0565229786152486e-005</threshold>
            <left_val>-7.0520347356796265e-001</left_val>
            <right_node>1</right_node></_>
          <_>
            <!-- node 1 -->
            <feature>
              <rects>
                <_>
                  12 5 16 42 -1.</_>
                <_>
                  12 26 16 21 2.</_></rects>
              <tilted>0</tilted></feature>
            <threshold>6.5222799777984619e-002</threshold>
            <left_val>2.9150238633155823e-001</left_val>
            <right_val>-7.0012998580932617e-001</right_val></_></_></trees>
      <stage_threshold>-1.2191809415817261e+000</stage_threshold>
      <parent>3</parent>
      <next>-1</next></_>
    <_>
      <!-- stage 5 -->
      <trees>
        <_>
          <!-- tree 0 -->
          <_>
            <!-- root node -->
            <feature>
              <rects>
                <_>
                  12 19 15 2 -1.</_>
                <_>
                  12 20 15 1 2.</_></rects>
              <tilted>0</tilted></feature>
            <threshold>1.1505700240377337e-004</threshold>
            <left_val>-7.6237571239471436e-001</left_val>
            <right_node>1</right_node></_>
          <_>
            <!-- node 1 -->
            <feature>
              <rects>
                <_>
                  7 11 26 34 -1.</_>
                <_>
                  7 28 26 17 2.</_></rects>
              <tilted>0</tilted></feature>
            <threshold>7.4943862855434418e-002</threshold>
            <left_val>7.6562511920928955e-001</left_val>
            <right_val>-1.0000079870223999e+000</right_val></_></_>
        <_>
          <!-- tree 1 -->
          <_>
            <!-- root node -->
            <feature>
              <rects>
                <_>
                  27 25 5 6 -1.</_>
                <_>
                  25 27 5 2 3.</_></rects>
              <tilted>1</tilted></feature>
            <threshold>-1.4172450391924940e-005</threshold>
            <left_node>1</left_node>
            <right_val>1.2198570370674133e-001</right_val></_>
          <_>
            <!-- node 1 -->
            <feature>
              <rects>
                <_>
                  37 23 2 17 -1.</_>
                <_>
                  37 23 1 17 2.</_></rects>
              <tilted>0</tilted></feature>
            <threshold>3.2285870474879630e-006</threshold>
            <left_val>-3.8580659031867981e-001</left_val>
            <right_val>2.8060969710350037e-001</right_val></_></_>
        <_>
          <!-- tree 2 -->
          <_>
            <!-- root node -->
            <feature>
              <rects>
                <_>
                  13 25 6 5 -1.</_>
                <_>
                  15 27 2 5 3.</_></rects>
              <tilted>1</tilted></feature>
            <threshold>4.5229921852296684e-006</threshold>
            <left_node>1</left_node>
            <right_val>-9.0308451652526855e-001</right_val></_>
          <_>
            <!-- node 1 -->
            <feature>
              <rects>
                <_>
                  1 23 2 17 -1.</_>
                <_>
                  2 23 1 17 2.</_></rects>
              <tilted>0</tilted></feature>
            <threshold>4.3714910134440288e-005</threshold>
            <left_val>-5.8169448375701904e-001</left_val>
            <right_val>8.4299290180206299e-001</right_val></_></_>
        <_>
          <!-- tree 3 -->
          <_>
            <!-- root node -->
            <feature>
              <rects>
                <_>
                  24 14 2 33 -1.</_>
                <_>
                  24 14 1 33 2.</_></rects>
              <tilted>0</tilted></feature>
            <threshold>-2.2387719945982099e-004</threshold>
            <left_node>1</left_node>
            <right_val>-4.6649509668350220e-001</right_val></_>
          <_>
            <!-- node 1 -->
            <feature>
              <rects>
                <_>
                  22 27 8 3 -1.</_>
                <_>
                  24 29 4 3 2.</_></rects>
              <tilted>1</tilted></feature>
            <threshold>-4.4439689190767240e-006</threshold>
            <left_val>-1.</left_val>
            <right_val>6.0717150568962097e-002</right_val></_></_>
        <_>
          <!-- tree 4 -->
          <_>
            <!-- root node -->
            <feature>
              <rects>
                <_>
                  14 29 12 12 -1.</_>
                <_>
                  18 33 4 4 9.</_></rects>
              <tilted>0</tilted></feature>
            <threshold>4.3999849003739655e-004</threshold>
            <left_val>-7.9168361425399780e-001</left_val>
            <right_node>1</right_node></_>
          <_>
            <!-- node 1 -->
            <feature>
              <rects>
                <_>
                  15 18 18 4 -1.</_>
                <_>
                  15 18 9 4 2.</_></rects>
              <tilted>1</tilted></feature>
            <threshold>4.6637171180918813e-004</threshold>
            <left_val>7.8631091117858887e-001</left_val>
            <right_val>-8.2510882616043091e-001</right_val></_></_></trees>
      <stage_threshold>-1.2236590385437012e+000</stage_threshold>
      <parent>4</parent>
      <next>-1</next></_>
    <_>
      <!-- stage 6 -->
      <trees>
        <_>
          <!-- tree 0 -->
          <_>
            <!-- root node -->
            <feature>
              <rects>
                <_>
                  13 14 4 32 -1.</_>
                <_>
                  15 14 2 32 2.</_></rects>
              <tilted>0</tilted></feature>
            <threshold>-8.9950038818642497e-004</threshold>
            <left_val>6.9230759143829346e-001</left_val>
            <right_node>1</right_node></_>
          <_>
            <!-- node 1 -->
            <feature>
              <rects>
                <_>
                  11 14 18 17 -1.</_>
                <_>
                  17 14 6 17 3.</_></rects>
              <tilted>0</tilted></feature>
            <threshold>2.2423520684242249e-002</threshold>
            <left_val>-9.4339621067047119e-001</left_val>
            <right_val>7.0731592178344727e-001</right_val></_></_>
        <_>
          <!-- tree 1 -->
          <_>
            <!-- root node -->
            <feature>
              <rects>
                <_>
                  2 10 36 30 -1.</_>
                <_>
                  11 10 18 30 2.</_></rects>
              <tilted>0</tilted></feature>
            <threshold>-1.5075120143592358e-002</threshold>
            <left_node>1</left_node>
            <right_val>-5.9261351823806763e-001</right_val></_>
          <_>
            <!-- node 1 -->
            <feature>
              <rects>
                <_>
                  29 16 6 15 -1.</_>
                <_>
                  31 21 2 5 9.</_></rects>
              <tilted>0</tilted></feature>
            <threshold>1.0650720447301865e-002</threshold>
            <left_val>5.5912528187036514e-002</left_val>
            <right_val>-6.5053302049636841e-001</right_val></_></_></trees>
      <stage_threshold>-8.8748359680175781e-001</stage_threshold>
      <parent>5</parent>
      <next>-1</next></_></stages></haarcascade>
</opencv_storage>
