<?xml version="1.0"?>
<opencv_storage>
<!-- Automatically converted from haarcascade, window size = 40x58 -->
<haarcascade-inter type_id="opencv-haar-classifier">
  <size>
    40 58</size>
  <stages>
    <_>
      <!-- stage 0 -->
      <trees>
        <_>
          <!-- tree 0 -->
          <_>
            <!-- root node -->
            <feature>
              <rects>
                <_>
                  8 11 24 36 -1.</_>
                <_>
                  8 23 24 12 3.</_></rects>
              <tilted>0</tilted></feature>
            <threshold>0.0786925405263901</threshold>
            <left_val>-0.9718309044837952</left_val>
            <right_node>1</right_node></_>
          <_>
            <!-- node 1 -->
            <feature>
              <rects>
                <_>
                  9 27 15 4 -1.</_>
                <_>
                  9 28 15 2 2.</_></rects>
              <tilted>0</tilted></feature>
            <threshold>1.4870430277369451e-005</threshold>
            <left_val>0.9603176116943359</left_val>
            <right_val>-1.0000089406967163</right_val></_></_>
        <_>
          <!-- tree 1 -->
          <_>
            <!-- root node -->
            <feature>
              <rects>
                <_>
                  20 11 9 39 -1.</_>
                <_>
                  20 24 9 13 3.</_></rects>
              <tilted>0</tilted></feature>
            <threshold>0.0408112294971943</threshold>
            <left_val>-0.8749790787696838</left_val>
            <right_node>1</right_node></_>
          <_>
            <!-- node 1 -->
            <feature>
              <rects>
                <_>
                  18 25 9 9 -1.</_>
                <_>
                  21 28 3 3 9.</_></rects>
              <tilted>0</tilted></feature>
            <threshold>7.8463177487719804e-005</threshold>
            <left_val>0.4090999066829681</left_val>
            <right_val>-0.9641464948654175</right_val></_></_></trees>
      <stage_threshold>-0.5627310276031494</stage_threshold>
      <parent>-1</parent>
      <next>-1</next></_>
    <_>
      <!-- stage 1 -->
      <trees>
        <_>
          <!-- tree 0 -->
          <_>
            <!-- root node -->
            <feature>
              <rects>
                <_>
                  9 27 15 4 -1.</_>
                <_>
                  9 28 15 2 2.</_></rects>
              <tilted>0</tilted></feature>
            <threshold>-2.3279679226106964e-005</threshold>
            <left_val>-0.9825708270072937</left_val>
            <right_node>1</right_node></_>
          <_>
            <!-- node 1 -->
            <feature>
              <rects>
                <_>
                  10 30 3 6 -1.</_>
                <_>
                  11 32 1 2 9.</_></rects>
              <tilted>0</tilted></feature>
            <threshold>-3.4901750041171908e-005</threshold>
            <left_val>-1.</left_val>
            <right_val>1.0000009536743164</right_val></_></_>
        <_>
          <!-- tree 1 -->
          <_>
            <!-- root node -->
            <feature>
              <rects>
                <_>
                  17 27 13 4 -1.</_>
                <_>
                  17 28 13 2 2.</_></rects>
              <tilted>0</tilted></feature>
            <threshold>-1.9708679246832617e-005</threshold>
            <left_val>-1.</left_val>
            <right_node>1</right_node></_>
          <_>
            <!-- node 1 -->
            <feature>
              <rects>
                <_>
                  21 23 6 2 -1.</_>
                <_>
                  21 23 3 2 2.</_></rects>
              <tilted>1</tilted></feature>
            <threshold>4.9859650061989669e-006</threshold>
            <left_val>0.4421896934509277</left_val>
            <right_val>-1.0000050067901611</right_val></_></_></trees>
      <stage_threshold>-0.5403810739517212</stage_threshold>
      <parent>0</parent>
      <next>-1</next></_>
    <_>
      <!-- stage 2 -->
      <trees>
        <_>
          <!-- tree 0 -->
          <_>
            <!-- root node -->
            <feature>
              <rects>
                <_>
                  9 27 15 4 -1.</_>
                <_>
                  9 28 15 2 2.</_></rects>
              <tilted>0</tilted></feature>
            <threshold>-2.6618729407346109e-006</threshold>
            <left_val>-0.9667589068412781</left_val>
            <right_node>1</right_node></_>
          <_>
            <!-- node 1 -->
            <feature>
              <rects>
                <_>
                  19 12 14 14 -1.</_>
                <_>
                  19 12 14 7 2.</_></rects>
              <tilted>1</tilted></feature>
            <threshold>-6.3564488664269447e-004</threshold>
            <left_val>0.8832687735557556</left_val>
            <right_val>-0.8400083184242249</right_val></_></_>
        <_>
          <!-- tree 1 -->
          <_>
            <!-- root node -->
            <feature>
              <rects>
                <_>
                  21 23 8 10 -1.</_>
                <_>
                  25 23 4 5 2.</_>
                <_>
                  21 28 4 5 2.</_></rects>
              <tilted>0</tilted></feature>
            <threshold>-4.6801560529274866e-005</threshold>
            <left_val>-0.9107452034950256</left_val>
            <right_node>1</right_node></_>
          <_>
            <!-- node 1 -->
            <feature>
              <rects>
                <_>
                  13 17 18 15 -1.</_>
                <_>
                  19 22 6 5 9.</_></rects>
              <tilted>0</tilted></feature>
            <threshold>1.9553769379854202e-003</threshold>
            <left_val>-0.8594210147857666</left_val>
            <right_val>0.2904458045959473</right_val></_></_></trees>
      <stage_threshold>-0.6763129830360413</stage_threshold>
      <parent>1</parent>
      <next>-1</next></_>
    <_>
      <!-- stage 3 -->
      <trees>
        <_>
          <!-- tree 0 -->
          <_>
            <!-- root node -->
            <feature>
              <rects>
                <_>
                  10 20 20 22 -1.</_>
                <_>
                  10 31 20 11 2.</_></rects>
              <tilted>0</tilted></feature>
            <threshold>-2.5545139797031879e-003</threshold>
            <left_node>1</left_node>
            <right_val>-0.9662978053092957</right_val></_>
          <_>
            <!-- node 1 -->
            <feature>
              <rects>
                <_>
                  8 26 20 8 -1.</_>
                <_>
                  8 26 10 4 2.</_>
                <_>
                  18 30 10 4 2.</_></rects>
              <tilted>0</tilted></feature>
            <threshold>-8.7944652477744967e-005</threshold>
            <left_val>-0.9402986168861389</left_val>
            <right_val>0.9215716123580933</right_val></_></_>
        <_>
          <!-- tree 1 -->
          <_>
            <!-- root node -->
            <feature>
              <rects>
                <_>
                  31 24 2 2 -1.</_>
                <_>
                  31 24 2 1 2.</_></rects>
              <tilted>1</tilted></feature>
            <threshold>-3.6783990253752563e-006</threshold>
            <left_val>-0.8750389218330383</left_val>
            <right_node>1</right_node></_>
          <_>
            <!-- node 1 -->
            <feature>
              <rects>
                <_>
                  12 21 16 20 -1.</_>
                <_>
                  12 31 16 10 2.</_></rects>
              <tilted>0</tilted></feature>
            <threshold>-9.0445711975917220e-004</threshold>
            <left_val>0.3537299036979675</left_val>
            <right_val>-0.9757118821144104</right_val></_></_></trees>
      <stage_threshold>-1.8153380155563354</stage_threshold>
      <parent>2</parent>
      <next>-1</next></_>
    <_>
      <!-- stage 4 -->
      <trees>
        <_>
          <!-- tree 0 -->
          <_>
            <!-- root node -->
            <feature>
              <rects>
                <_>
                  12 15 16 24 -1.</_>
                <_>
                  12 27 16 12 2.</_></rects>
              <tilted>0</tilted></feature>
            <threshold>0.0117649203166366</threshold>
            <left_val>-0.8877549171447754</left_val>
            <right_node>1</right_node></_>
          <_>
            <!-- node 1 -->
            <feature>
              <rects>
                <_>
                  13 32 10 2 -1.</_>
                <_>
                  13 32 5 1 2.</_>
                <_>
                  18 33 5 1 2.</_></rects>
              <tilted>0</tilted></feature>
            <threshold>-1.5263109162333421e-005</threshold>
            <left_val>-0.8867927193641663</left_val>
            <right_val>0.8804802894592285</right_val></_></_>
        <_>
          <!-- tree 1 -->
          <_>
            <!-- root node -->
            <feature>
              <rects>
                <_>
                  21 24 1 14 -1.</_>
                <_>
                  21 24 1 7 2.</_></rects>
              <tilted>1</tilted></feature>
            <threshold>2.7654410587274469e-005</threshold>
            <left_node>1</left_node>
            <right_val>-0.5693119764328003</right_val></_>
          <_>
            <!-- node 1 -->
            <feature>
              <rects>
                <_>
                  23 23 2 14 -1.</_>
                <_>
                  23 23 2 7 2.</_></rects>
              <tilted>1</tilted></feature>
            <threshold>8.5176587163005024e-005</threshold>
            <left_val>0.3179653882980347</left_val>
            <right_val>-0.5847365260124207</right_val></_></_>
        <_>
          <!-- tree 2 -->
          <_>
            <!-- root node -->
            <feature>
              <rects>
                <_>
                  6 27 24 5 -1.</_>
                <_>
                  18 27 12 5 2.</_></rects>
              <tilted>0</tilted></feature>
            <threshold>-5.4522948630619794e-005</threshold>
            <left_val>-1.</left_val>
            <right_node>1</right_node></_>
          <_>
            <!-- node 1 -->
            <feature>
              <rects>
                <_>
                  11 24 9 3 -1.</_>
                <_>
                  14 25 3 1 9.</_></rects>
              <tilted>0</tilted></feature>
            <threshold>-5.5534028433612548e-006</threshold>
            <left_val>-1.</left_val>
            <right_val>0.8945248126983643</right_val></_></_></trees>
      <stage_threshold>-0.5779665112495422</stage_threshold>
      <parent>3</parent>
      <next>-1</next></_>
    <_>
      <!-- stage 5 -->
      <trees>
        <_>
          <!-- tree 0 -->
          <_>
            <!-- root node -->
            <feature>
              <rects>
                <_>
                  0 21 16 18 -1.</_>
                <_>
                  4 21 8 18 2.</_></rects>
              <tilted>0</tilted></feature>
            <threshold>2.6627639308571815e-003</threshold>
            <left_val>-0.8403546810150147</left_val>
            <right_node>1</right_node></_>
          <_>
            <!-- node 1 -->
            <feature>
              <rects>
                <_>
                  9 18 20 20 -1.</_>
                <_>
                  9 28 20 10 2.</_></rects>
              <tilted>0</tilted></feature>
            <threshold>2.4087830388452858e-004</threshold>
            <left_val>-1.</left_val>
            <right_val>0.9578071236610413</right_val></_></_>
        <_>
          <!-- tree 1 -->
          <_>
            <!-- root node -->
            <feature>
              <rects>
                <_>
                  21 24 1 12 -1.</_>
                <_>
                  18 27 1 6 2.</_></rects>
              <tilted>1</tilted></feature>
            <threshold>2.2451419499702752e-004</threshold>
            <left_node>1</left_node>
            <right_val>-0.6600806713104248</right_val></_>
          <_>
            <!-- node 1 -->
            <feature>
              <rects>
                <_>
                  13 17 14 22 -1.</_>
                <_>
                  13 28 14 11 2.</_></rects>
              <tilted>0</tilted></feature>
            <threshold>2.2620949894189835e-003</threshold>
            <left_val>-0.8645349144935608</left_val>
            <right_val>0.4098618924617767</right_val></_></_>
        <_>
          <!-- tree 2 -->
          <_>
            <!-- root node -->
            <feature>
              <rects>
                <_>
                  19 24 12 1 -1.</_>
                <_>
                  22 27 6 1 2.</_></rects>
              <tilted>1</tilted></feature>
            <threshold>1.9813160179182887e-005</threshold>
            <left_node>1</left_node>
            <right_val>-0.8374971151351929</right_val></_>
          <_>
            <!-- node 1 -->
            <feature>
              <rects>
                <_>
                  13 27 12 3 -1.</_>
                <_>
                  17 28 4 1 9.</_></rects>
              <tilted>0</tilted></feature>
            <threshold>2.8918300358782290e-006</threshold>
            <left_val>0.9108514189720154</left_val>
            <right_val>-0.9999865293502808</right_val></_></_></trees>
      <stage_threshold>-1.2679899930953979</stage_threshold>
      <parent>4</parent>
      <next>-1</next></_>
    <_>
      <!-- stage 6 -->
      <trees>
        <_>
          <!-- tree 0 -->
          <_>
            <!-- root node -->
            <feature>
              <rects>
                <_>
                  0 23 2 12 -1.</_>
                <_>
                  1 23 1 12 2.</_></rects>
              <tilted>0</tilted></feature>
            <threshold>4.1785000939853489e-004</threshold>
            <left_node>1</left_node>
            <right_val>0.8543710708618164</right_val></_>
          <_>
            <!-- node 1 -->
            <feature>
              <rects>
                <_>
                  7 42 18 16 -1.</_>
                <_>
                  7 42 9 8 2.</_>
                <_>
                  16 50 9 8 2.</_></rects>
              <tilted>0</tilted></feature>
            <threshold>0.0280270799994469</threshold>
            <left_val>-0.7988392114639282</left_val>
            <right_val>0.8591548800468445</right_val></_></_>
        <_>
          <!-- tree 1 -->
          <_>
            <!-- root node -->
            <feature>
              <rects>
                <_>
                  11 25 18 9 -1.</_>
                <_>
                  17 28 6 3 9.</_></rects>
              <tilted>0</tilted></feature>
            <threshold>1.5145809447858483e-004</threshold>
            <left_node>1</left_node>
            <right_val>-0.9144644141197205</right_val></_>
          <_>
            <!-- node 1 -->
            <feature>
              <rects>
                <_>
                  25 23 15 16 -1.</_>
                <_>
                  30 23 5 16 3.</_></rects>
              <tilted>0</tilted></feature>
            <threshold>1.0588690201984718e-004</threshold>
            <left_val>-0.5899785757064819</left_val>
            <right_val>0.2634443938732147</right_val></_></_>
        <_>
          <!-- tree 2 -->
          <_>
            <!-- root node -->
            <feature>
              <rects>
                <_>
                  12 13 4 36 -1.</_>
                <_>
                  14 13 2 36 2.</_></rects>
              <tilted>0</tilted></feature>
            <threshold>-1.9899760372936726e-003</threshold>
            <left_node>1</left_node>
            <right_val>-0.4685249030590057</right_val></_>
          <_>
            <!-- node 1 -->
            <feature>
              <rects>
                <_>
                  11 24 4 10 -1.</_>
                <_>
                  11 24 2 5 2.</_>
                <_>
                  13 29 2 5 2.</_></rects>
              <tilted>0</tilted></feature>
            <threshold>-2.3135800802265294e-005</threshold>
            <left_val>-1.</left_val>
            <right_val>0.9537901878356934</right_val></_></_></trees>
      <stage_threshold>-1.0039199590682983</stage_threshold>
      <parent>5</parent>
      <next>-1</next></_>
    <_>
      <!-- stage 7 -->
      <trees>
        <_>
          <!-- tree 0 -->
          <_>
            <!-- root node -->
            <feature>
              <rects>
                <_>
                  1 23 2 15 -1.</_>
                <_>
                  2 23 1 15 2.</_></rects>
              <tilted>0</tilted></feature>
            <threshold>9.0988178271800280e-005</threshold>
            <left_val>-0.6835697293281555</left_val>
            <right_node>1</right_node></_>
          <_>
            <!-- node 1 -->
            <feature>
              <rects>
                <_>
                  12 25 16 5 -1.</_>
                <_>
                  20 25 8 5 2.</_></rects>
              <tilted>0</tilted></feature>
            <threshold>2.8711720369756222e-004</threshold>
            <left_val>0.9313499927520752</left_val>
            <right_val>-1.0000020265579224</right_val></_></_>
        <_>
          <!-- tree 1 -->
          <_>
            <!-- root node -->
            <feature>
              <rects>
                <_>
                  24 14 2 32 -1.</_>
                <_>
                  24 14 1 32 2.</_></rects>
              <tilted>0</tilted></feature>
            <threshold>-4.3475680286064744e-004</threshold>
            <left_node>1</left_node>
            <right_val>-0.4484171867370606</right_val></_>
          <_>
            <!-- node 1 -->
            <feature>
              <rects>
                <_>
                  22 23 12 4 -1.</_>
                <_>
                  22 23 12 2 2.</_></rects>
              <tilted>1</tilted></feature>
            <threshold>6.6128000071330462e-006</threshold>
            <left_val>0.3771390020847321</left_val>
            <right_val>-0.6239829063415527</right_val></_></_>
        <_>
          <!-- tree 2 -->
          <_>
            <!-- root node -->
            <feature>
              <rects>
                <_>
                  0 16 12 37 -1.</_>
                <_>
                  3 16 6 37 2.</_></rects>
              <tilted>0</tilted></feature>
            <threshold>6.9700260646641254e-003</threshold>
            <left_node>1</left_node>
            <right_val>0.8433911204338074</right_val></_>
          <_>
            <!-- node 1 -->
            <feature>
              <rects>
                <_>
                  6 20 18 31 -1.</_>
                <_>
                  12 20 6 31 3.</_></rects>
              <tilted>0</tilted></feature>
            <threshold>0.0190252307802439</threshold>
            <left_val>-0.7786493897438049</left_val>
            <right_val>0.7580643296241760</right_val></_></_></trees>
      <stage_threshold>-1.0850800275802612</stage_threshold>
      <parent>6</parent>
      <next>-1</next></_>
    <_>
      <!-- stage 8 -->
      <trees>
        <_>
          <!-- tree 0 -->
          <_>
            <!-- root node -->
            <feature>
              <rects>
                <_>
                  18 25 2 12 -1.</_>
                <_>
                  14 29 2 4 3.</_></rects>
              <tilted>1</tilted></feature>
            <threshold>3.8063419651734876e-006</threshold>
            <left_node>1</left_node>
            <right_val>-0.7516664862632752</right_val></_>
          <_>
            <!-- node 1 -->
            <feature>
              <rects>
                <_>
                  8 24 8 12 -1.</_>
                <_>
                  10 24 4 12 2.</_></rects>
              <tilted>0</tilted></feature>
            <threshold>-1.1116880159534048e-005</threshold>
            <left_val>-0.9402984976768494</left_val>
            <right_val>0.8340256810188294</right_val></_></_>
        <_>
          <!-- tree 1 -->
          <_>
            <!-- root node -->
            <feature>
              <rects>
                <_>
                  14 1 12 39 -1.</_>
                <_>
                  18 1 4 39 3.</_></rects>
              <tilted>0</tilted></feature>
            <threshold>0.0164506807923317</threshold>
            <left_node>1</left_node>
            <right_val>0.9536275863647461</right_val></_>
          <_>
            <!-- node 1 -->
            <feature>
              <rects>
                <_>
                  9 3 24 47 -1.</_>
                <_>
                  15 3 12 47 2.</_></rects>
              <tilted>0</tilted></feature>
            <threshold>-0.0844907686114311</threshold>
            <left_val>0.9512987136840820</left_val>
            <right_val>-0.1531188935041428</right_val></_></_>
        <_>
          <!-- tree 2 -->
          <_>
            <!-- root node -->
            <feature>
              <rects>
                <_>
                  14 11 12 47 -1.</_>
                <_>
                  18 11 4 47 3.</_></rects>
              <tilted>0</tilted></feature>
            <threshold>0.0162628106772900</threshold>
            <left_node>1</left_node>
            <right_val>0.6970927715301514</right_val></_>
          <_>
            <!-- node 1 -->
            <feature>
              <rects>
                <_>
                  8 13 24 11 -1.</_>
                <_>
                  14 13 12 11 2.</_></rects>
              <tilted>0</tilted></feature>
            <threshold>-0.0292042400687933</threshold>
            <left_val>0.8454226851463318</left_val>
            <right_val>-0.8546208143234253</right_val></_></_></trees>
      <stage_threshold>-0.6526597738265991</stage_threshold>
      <parent>7</parent>
      <next>-1</next></_>
    <_>
      <!-- stage 9 -->
      <trees>
        <_>
          <!-- tree 0 -->
          <_>
            <!-- root node -->
            <feature>
              <rects>
                <_>
                  14 15 2 31 -1.</_>
                <_>
                  15 15 1 31 2.</_></rects>
              <tilted>0</tilted></feature>
            <threshold>-1.3842670341546182e-005</threshold>
            <left_node>1</left_node>
            <right_val>-0.7647083997726440</right_val></_>
          <_>
            <!-- node 1 -->
            <feature>
              <rects>
                <_>
                  5 32 26 1 -1.</_>
                <_>
                  18 32 13 1 2.</_></rects>
              <tilted>0</tilted></feature>
            <threshold>-2.0947300072293729e-005</threshold>
            <left_val>-1.</left_val>
            <right_val>0.8189148902893066</right_val></_></_>
        <_>
          <!-- tree 1 -->
          <_>
            <!-- root node -->
            <feature>
              <rects>
                <_>
                  36 23 3 11 -1.</_>
                <_>
                  37 23 1 11 3.</_></rects>
              <tilted>0</tilted></feature>
            <threshold>3.7833970054634847e-006</threshold>
            <left_val>-0.1023558005690575</left_val>
            <right_node>1</right_node></_>
          <_>
            <!-- node 1 -->
            <feature>
              <rects>
                <_>
                  11 25 24 6 -1.</_>
                <_>
                  19 27 8 2 9.</_></rects>
              <tilted>0</tilted></feature>
            <threshold>-5.7678869779920205e-005</threshold>
            <left_val>-1.</left_val>
            <right_val>0.1453302949666977</right_val></_></_>
        <_>
          <!-- tree 2 -->
          <_>
            <!-- root node -->
            <feature>
              <rects>
                <_>
                  6 19 28 15 -1.</_>
                <_>
                  13 19 14 15 2.</_></rects>
              <tilted>0</tilted></feature>
            <threshold>-8.6233092588372529e-005</threshold>
            <left_val>0.6671186089515686</left_val>
            <right_node>1</right_node></_>
          <_>
            <!-- node 1 -->
            <feature>
              <rects>
                <_>
                  12 4 16 54 -1.</_>
                <_>
                  16 4 8 54 2.</_></rects>
              <tilted>0</tilted></feature>
            <threshold>0.0608089417219162</threshold>
            <left_val>-0.8012709021568298</left_val>
            <right_val>0.9999992847442627</right_val></_></_>
        <_>
          <!-- tree 3 -->
          <_>
            <!-- root node -->
            <feature>
              <rects>
                <_>
                  6 25 34 9 -1.</_>
                <_>
                  6 25 17 9 2.</_></rects>
              <tilted>0</tilted></feature>
            <threshold>-6.7166496592108160e-005</threshold>
            <left_val>-0.7835978865623474</left_val>
            <right_node>1</right_node></_>
          <_>
            <!-- node 1 -->
            <feature>
              <rects>
                <_>
                  12 21 22 17 -1.</_>
                <_>
                  12 21 11 17 2.</_></rects>
              <tilted>0</tilted></feature>
            <threshold>0.0194741096347570</threshold>
            <left_val>0.0919430404901505</left_val>
            <right_val>-0.8817911744117737</right_val></_></_></trees>
      <stage_threshold>-1.3287060260772705</stage_threshold>
      <parent>8</parent>
      <next>-1</next></_>
    <_>
      <!-- stage 10 -->
      <trees>
        <_>
          <!-- tree 0 -->
          <_>
            <!-- root node -->
            <feature>
              <rects>
                <_>
                  13 39 13 2 -1.</_>
                <_>
                  13 40 13 1 2.</_></rects>
              <tilted>0</tilted></feature>
            <threshold>-2.1797060617245734e-004</threshold>
            <left_val>0.7520660758018494</left_val>
            <right_node>1</right_node></_>
          <_>
            <!-- node 1 -->
            <feature>
              <rects>
                <_>
                  0 36 30 8 -1.</_>
                <_>
                  0 36 15 4 2.</_>
                <_>
                  15 40 15 4 2.</_></rects>
              <tilted>0</tilted></feature>
            <threshold>0.0190429203212261</threshold>
            <left_val>-0.9213973283767700</left_val>
            <right_val>0.9999958872795105</right_val></_></_>
        <_>
          <!-- tree 1 -->
          <_>
            <!-- root node -->
            <feature>
              <rects>
                <_>
                  13 42 14 2 -1.</_>
                <_>
                  13 43 14 1 2.</_></rects>
              <tilted>0</tilted></feature>
            <threshold>-1.2860640708822757e-004</threshold>
            <left_val>0.8235545754432678</left_val>
            <right_node>1</right_node></_>
          <_>
            <!-- node 1 -->
            <feature>
              <rects>
                <_>
                  29 15 11 4 -1.</_>
                <_>
                  29 16 11 2 2.</_></rects>
              <tilted>0</tilted></feature>
            <threshold>2.0661459711845964e-004</threshold>
            <left_val>0.1568188071250916</left_val>
            <right_val>-0.3912396132946014</right_val></_></_>
        <_>
          <!-- tree 2 -->
          <_>
            <!-- root node -->
            <feature>
              <rects>
                <_>
                  12 38 16 2 -1.</_>
                <_>
                  12 39 16 1 2.</_></rects>
              <tilted>0</tilted></feature>
            <threshold>-1.5987140068318695e-004</threshold>
            <left_node>1</left_node>
            <right_val>-0.8629863262176514</right_val></_>
          <_>
            <!-- node 1 -->
            <feature>
              <rects>
                <_>
                  0 22 15 18 -1.</_>
                <_>
                  5 22 5 18 3.</_></rects>
              <tilted>0</tilted></feature>
            <threshold>2.7375000063329935e-003</threshold>
            <left_val>-0.7761520147323608</left_val>
            <right_val>0.9999995231628418</right_val></_></_></trees>
      <stage_threshold>-0.9608290195465088</stage_threshold>
      <parent>9</parent>
      <next>-1</next></_>
    <_>
      <!-- stage 11 -->
      <trees>
        <_>
          <!-- tree 0 -->
          <_>
            <!-- root node -->
            <feature>
              <rects>
                <_>
                  16 33 4 6 -1.</_>
                <_>
                  14 35 4 2 3.</_></rects>
              <tilted>1</tilted></feature>
            <threshold>2.2622149117523804e-005</threshold>
            <left_val>0.7478994131088257</left_val>
            <right_node>1</right_node></_>
          <_>
            <!-- node 1 -->
            <feature>
              <rects>
                <_>
                  0 15 27 5 -1.</_>
                <_>
                  9 15 9 5 3.</_></rects>
              <tilted>0</tilted></feature>
            <threshold>0.0168381407856941</threshold>
            <left_val>-0.9213973879814148</left_val>
            <right_val>0.9999986290931702</right_val></_></_>
        <_>
          <!-- tree 1 -->
          <_>
            <!-- root node -->
            <feature>
              <rects>
                <_>
                  28 26 12 9 -1.</_>
                <_>
                  28 29 12 3 3.</_></rects>
              <tilted>0</tilted></feature>
            <threshold>-9.8210223950445652e-004</threshold>
            <left_node>1</left_node>
            <right_val>0.0899718105792999</right_val></_>
          <_>
            <!-- node 1 -->
            <feature>
              <rects>
                <_>
                  23 21 4 16 -1.</_>
                <_>
                  23 21 2 16 2.</_></rects>
              <tilted>1</tilted></feature>
            <threshold>1.4492879927274771e-005</threshold>
            <left_val>0.0963825508952141</left_val>
            <right_val>-0.5135625004768372</right_val></_></_>
        <_>
          <!-- tree 2 -->
          <_>
            <!-- root node -->
            <feature>
              <rects>
                <_>
                  0 26 12 9 -1.</_>
                <_>
                  0 29 12 3 3.</_></rects>
              <tilted>0</tilted></feature>
            <threshold>1.8613849533721805e-005</threshold>
            <left_node>1</left_node>
            <right_val>0.7666751742362976</right_val></_>
          <_>
            <!-- node 1 -->
            <feature>
              <rects>
                <_>
                  3 31 10 2 -1.</_>
                <_>
                  3 31 5 2 2.</_></rects>
              <tilted>1</tilted></feature>
            <threshold>-9.6339326773886569e-006</threshold>
            <left_val>0.8136823773384094</left_val>
            <right_val>-0.9299374818801880</right_val></_></_></trees>
      <stage_threshold>-0.0920662879943848</stage_threshold>
      <parent>10</parent>
      <next>-1</next></_>
    <_>
      <!-- stage 12 -->
      <trees>
        <_>
          <!-- tree 0 -->
          <_>
            <!-- root node -->
            <feature>
              <rects>
                <_>
                  8 21 24 15 -1.</_>
                <_>
                  14 21 12 15 2.</_></rects>
              <tilted>0</tilted></feature>
            <threshold>5.7430708693573251e-005</threshold>
            <left_val>1.</left_val>
            <right_node>1</right_node></_>
          <_>
            <!-- node 1 -->
            <feature>
              <rects>
                <_>
                  18 16 3 24 -1.</_>
                <_>
                  18 28 3 12 2.</_></rects>
              <tilted>0</tilted></feature>
            <threshold>1.5262679662555456e-003</threshold>
            <left_val>1.</left_val>
            <right_val>-0.9841269254684448</right_val></_></_>
        <_>
          <!-- tree 1 -->
          <_>
            <!-- root node -->
            <feature>
              <rects>
                <_>
                  7 26 28 10 -1.</_>
                <_>
                  14 26 14 10 2.</_></rects>
              <tilted>0</tilted></feature>
            <threshold>3.1781860161572695e-003</threshold>
            <left_val>0.5805422067642212</left_val>
            <right_node>1</right_node></_>
          <_>
            <!-- node 1 -->
            <feature>
              <rects>
                <_>
                  15 48 25 6 -1.</_>
                <_>
                  15 50 25 2 3.</_></rects>
              <tilted>0</tilted></feature>
            <threshold>2.0466700661927462e-003</threshold>
            <left_val>-0.3474802970886231</left_val>
            <right_val>0.9999927878379822</right_val></_></_></trees>
      <stage_threshold>-0.4035846889019013</stage_threshold>
      <parent>11</parent>
      <next>-1</next></_>
    <_>
      <!-- stage 13 -->
      <trees>
        <_>
          <!-- tree 0 -->
          <_>
            <!-- root node -->
            <feature>
              <rects>
                <_>
                  0 7 37 30 -1.</_>
                <_>
                  0 17 37 10 3.</_></rects>
              <tilted>0</tilted></feature>
            <threshold>0.1983858942985535</threshold>
            <left_val>1.</left_val>
            <right_node>1</right_node></_>
          <_>
            <!-- node 1 -->
            <feature>
              <rects>
                <_>
                  0 0 2 1 -1.</_>
                <_>
                  1 0 1 1 2.</_></rects>
              <tilted>0</tilted></feature>
            <threshold>0.</threshold>
            <left_val>0.</left_val>
            <right_val>-1.</right_val></_></_></trees>
      <stage_threshold>1.</stage_threshold>
      <parent>12</parent>
      <next>-1</next></_></stages></haarcascade-inter>
</opencv_storage>
