<?xml version="1.0"?>
<opencv_storage>
<_2_of_diamonds type_id="opencv-haar-classifier">
  <size>
    40 58</size>
  <stages>
    <_>
      <!-- stage 0 -->
      <trees>
        <_>
          <!-- tree 0 -->
          <_>
            <!-- root node -->
            <feature>
              <rects>
                <_>
                  1 1 38 56 -1.</_>
                <_>
                  1 15 38 28 2.</_></rects>
              <tilted>0</tilted></feature>
            <threshold>2.0636360347270966e-001</threshold>
            <left_val>-9.7530859708786011e-001</left_val>
            <right_node>1</right_node></_>
          <_>
            <!-- node 1 -->
            <feature>
              <rects>
                <_>
                  0 22 21 24 -1.</_>
                <_>
                  0 34 21 12 2.</_></rects>
              <tilted>0</tilted></feature>
            <threshold>-2.0512060727924109e-003</threshold>
            <left_val>1.</left_val>
            <right_val>-1.0000100135803223e+000</right_val></_></_>
        <_>
          <!-- tree 1 -->
          <_>
            <!-- root node -->
            <feature>
              <rects>
                <_>
                  0 1 40 56 -1.</_>
                <_>
                  0 15 40 28 2.</_></rects>
              <tilted>0</tilted></feature>
            <threshold>1.7397579550743103e-001</threshold>
            <left_val>-1.</left_val>
            <right_node>1</right_node></_>
          <_>
            <!-- node 1 -->
            <feature>
              <rects>
                <_>
                  30 27 6 3 -1.</_>
                <_>
                  32 28 2 1 9.</_></rects>
              <tilted>0</tilted></feature>
            <threshold>4.6038559958105907e-005</threshold>
            <left_val>4.3200320005416870e-001</left_val>
            <right_val>-9.9999588727951050e-001</right_val></_></_></trees>
      <stage_threshold>-5.4330539703369141e-001</stage_threshold>
      <parent>-1</parent>
      <next>-1</next></_>
    <_>
      <!-- stage 1 -->
      <trees>
        <_>
          <!-- tree 0 -->
          <_>
            <!-- root node -->
            <feature>
              <rects>
                <_>
                  12 10 16 12 -1.</_>
                <_>
                  12 13 16 6 2.</_></rects>
              <tilted>0</tilted></feature>
            <threshold>-1.2650609947741032e-002</threshold>
            <left_node>1</left_node>
            <right_val>-9.9177497625350952e-001</right_val></_>
          <_>
            <!-- node 1 -->
            <feature>
              <rects>
                <_>
                  0 12 34 40 -1.</_>
                <_>
                  0 22 34 20 2.</_></rects>
              <tilted>0</tilted></feature>
            <threshold>1.8734550476074219e-001</threshold>
            <left_val>1.</left_val>
            <right_val>-1.0000129938125610e+000</right_val></_></_>
        <_>
          <!-- tree 1 -->
          <_>
            <!-- root node -->
            <feature>
              <rects>
                <_>
                  12 6 16 21 -1.</_>
                <_>
                  12 13 16 7 3.</_></rects>
              <tilted>0</tilted></feature>
            <threshold>-2.3710690438747406e-002</threshold>
            <left_node>1</left_node>
            <right_val>-9.9999302625656128e-001</right_val></_>
          <_>
            <!-- node 1 -->
            <feature>
              <rects>
                <_>
                  30 0 10 42 -1.</_>
                <_>
                  30 0 5 42 2.</_></rects>
              <tilted>0</tilted></feature>
            <threshold>1.3099939562380314e-002</threshold>
            <left_val>-5.5487108230590820e-001</left_val>
            <right_val>6.9965487718582153e-001</right_val></_></_></trees>
      <stage_threshold>-1.5466459989547729e+000</stage_threshold>
      <parent>0</parent>
      <next>-1</next></_>
    <_>
      <!-- stage 2 -->
      <trees>
        <_>
          <!-- tree 0 -->
          <_>
            <!-- root node -->
            <feature>
              <rects>
                <_>
                  0 18 4 23 -1.</_>
                <_>
                  2 18 2 23 2.</_></rects>
              <tilted>0</tilted></feature>
            <threshold>6.3761840574443340e-003</threshold>
            <left_val>-9.9156117439270020e-001</left_val>
            <right_node>1</right_node></_>
          <_>
            <!-- node 1 -->
            <feature>
              <rects>
                <_>
                  2 15 36 24 -1.</_>
                <_>
                  14 23 12 8 9.</_></rects>
              <tilted>0</tilted></feature>
            <threshold>9.6024252474308014e-002</threshold>
            <left_val>1.</left_val>
            <right_val>-1.0000139474868774e+000</right_val></_></_>
        <_>
          <!-- tree 1 -->
          <_>
            <!-- root node -->
            <feature>
              <rects>
                <_>
                  36 20 4 21 -1.</_>
                <_>
                  36 20 2 21 2.</_></rects>
              <tilted>0</tilted></feature>
            <threshold>2.0363801158964634e-003</threshold>
            <left_val>-6.9019198417663574e-001</left_val>
            <right_node>1</right_node></_>
          <_>
            <!-- node 1 -->
            <feature>
              <rects>
                <_>
                  2 23 36 9 -1.</_>
                <_>
                  14 26 12 3 9.</_></rects>
              <tilted>0</tilted></feature>
            <threshold>4.6210209839046001e-003</threshold>
            <left_val>5.0199460983276367e-001</left_val>
            <right_val>-8.5894179344177246e-001</right_val></_></_></trees>
      <stage_threshold>-4.8956659436225891e-001</stage_threshold>
      <parent>1</parent>
      <next>-1</next></_>
    <_>
      <!-- stage 3 -->
      <trees>
        <_>
          <!-- tree 0 -->
          <_>
            <!-- root node -->
            <feature>
              <rects>
                <_>
                  11 40 18 12 -1.</_>
                <_>
                  11 46 18 6 2.</_></rects>
              <tilted>0</tilted></feature>
            <threshold>2.0355410873889923e-002</threshold>
            <left_val>-9.5918357372283936e-001</left_val>
            <right_node>1</right_node></_>
          <_>
            <!-- node 1 -->
            <feature>
              <rects>
                <_>
                  0 4 34 36 -1.</_>
                <_>
                  0 16 34 12 3.</_></rects>
              <tilted>0</tilted></feature>
            <threshold>1.2760169804096222e-001</threshold>
            <left_val>1.</left_val>
            <right_val>-1.0000079870223999e+000</right_val></_></_>
        <_>
          <!-- tree 1 -->
          <_>
            <!-- root node -->
            <feature>
              <rects>
                <_>
                  17 39 22 16 -1.</_>
                <_>
                  28 39 11 8 2.</_>
                <_>
                  17 47 11 8 2.</_></rects>
              <tilted>0</tilted></feature>
            <threshold>1.5972610563039780e-002</threshold>
            <left_val>-9.7158628702163696e-001</left_val>
            <right_node>1</right_node></_>
          <_>
            <!-- node 1 -->
            <feature>
              <rects>
                <_>
                  4 22 36 12 -1.</_>
                <_>
                  16 26 12 4 9.</_></rects>
              <tilted>0</tilted></feature>
            <threshold>-1.1774490121752024e-004</threshold>
            <left_val>-1.</left_val>
            <right_val>5.7802248001098633e-001</right_val></_></_></trees>
      <stage_threshold>-3.8116121292114258e-001</stage_threshold>
      <parent>2</parent>
      <next>-1</next></_></stages></_2_of_diamonds>
</opencv_storage>
