<?xml version="1.0"?>
<opencv_storage>
<_9_of_spades type_id="opencv-haar-classifier">
  <size>
    40 58</size>
  <stages>
    <_>
      <!-- stage 0 -->
      <trees>
        <_>
          <!-- tree 0 -->
          <_>
            <!-- root node -->
            <feature>
              <rects>
                <_>
                  2 22 21 13 -1.</_>
                <_>
                  9 22 7 13 3.</_></rects>
              <tilted>0</tilted></feature>
            <threshold>-7.6026581227779388e-002</threshold>
            <left_val>1.</left_val>
            <right_node>1</right_node></_>
          <_>
            <!-- node 1 -->
            <feature>
              <rects>
                <_>
                  0 0 2 1 -1.</_>
                <_>
                  1 0 1 1 2.</_></rects>
              <tilted>0</tilted></feature>
            <threshold>-7.1380782173946500e-004</threshold>
            <left_val>0.</left_val>
            <right_val>-1.</right_val></_></_></trees>
      <stage_threshold>1.</stage_threshold>
      <parent>-1</parent>
      <next>-1</next></_>
    <_>
      <!-- stage 1 -->
      <trees>
        <_>
          <!-- tree 0 -->
          <_>
            <!-- root node -->
            <feature>
              <rects>
                <_>
                  11 12 6 7 -1.</_>
                <_>
                  13 14 2 7 3.</_></rects>
              <tilted>1</tilted></feature>
            <threshold>1.1231539770960808e-002</threshold>
            <left_node>1</left_node>
            <right_val>9.8400568962097168e-001</right_val></_>
          <_>
            <!-- node 1 -->
            <feature>
              <rects>
                <_>
                  0 17 2 10 -1.</_>
                <_>
                  0 17 1 5 2.</_>
                <_>
                  1 22 1 5 2.</_></rects>
              <tilted>0</tilted></feature>
            <threshold>2.5819700676947832e-003</threshold>
            <left_val>-1.</left_val>
            <right_val>1.</right_val></_></_></trees>
      <stage_threshold>9.8400568962097168e-001</stage_threshold>
      <parent>0</parent>
      <next>-1</next></_>
    <_>
      <!-- stage 2 -->
      <trees>
        <_>
          <!-- tree 0 -->
          <_>
            <!-- root node -->
            <feature>
              <rects>
                <_>
                  8 24 24 12 -1.</_>
                <_>
                  16 28 8 4 9.</_></rects>
              <tilted>0</tilted></feature>
            <threshold>1.3095159828662872e-001</threshold>
            <left_val>-1.</left_val>
            <right_node>1</right_node></_>
          <_>
            <!-- node 1 -->
            <feature>
              <rects>
                <_>
                  0 0 2 1 -1.</_>
                <_>
                  1 0 1 1 2.</_></rects>
              <tilted>0</tilted></feature>
            <threshold>-6.9947890006005764e-004</threshold>
            <left_val>0.</left_val>
            <right_val>1.</right_val></_></_></trees>
      <stage_threshold>1.</stage_threshold>
      <parent>1</parent>
      <next>-1</next></_></stages></_9_of_spades>
</opencv_storage>
